<?xml version="1.0" encoding="UTF-8"?><PMML version="4.0" xmlns="http://www.dmg.org/PMML-4_0" xmlns:xsi="http://www.w3.org/2001/XMLSchema-instance" xsi:schemaLocation="http://www.dmg.org/PMML-4_0 pmml-4-0.xsd">
	<Header copyright="Copyright (c) 1989, 2010 SPSS Inc., an IBM Company.">
		  <Application name="IBM SPSS Statistics 19.0" version="19.0.0"/>
	</Header>
	<DataDictionary numberOfFields="14">
		  <DataField dataType="double" displayName="ACADEMIC_RISK" name="ACADEMIC_RISK" optype="categorical">
			  <Extension extender="spss.com" name="format" value="5"/>
			  <Extension extender="spss.com" name="width" value="8"/>
			  <Extension extender="spss.com" name="decimals" value="0"/>
			  <Value displayValue="1" property="valid" value="1"/>
			  <Value displayValue="2" property="valid" value="2"/>
		</DataField>
		  <DataField dataType="double" displayName="RC_GENDER" name="RC_GENDER" optype="categorical">
			  <Extension extender="spss.com" name="format" value="5"/>
			  <Extension extender="spss.com" name="width" value="8"/>
			  <Extension extender="spss.com" name="decimals" value="0"/>
			  <Value displayValue="1" property="valid" value="1"/>
			  <Value displayValue="2" property="valid" value="2"/>
		</DataField>
		  <DataField dataType="double" displayName="RC_FTPT" name="RC_FTPT" optype="categorical">
			  <Extension extender="spss.com" name="format" value="5"/>
			  <Extension extender="spss.com" name="width" value="8"/>
			  <Extension extender="spss.com" name="decimals" value="0"/>
			  <Value displayValue="1" property="valid" value="1"/>
			  <Value displayValue="2" property="valid" value="2"/>
		</DataField>
		  <DataField dataType="double" displayName="RC_CLASS" name="RC_CLASS" optype="categorical">
			  <Extension extender="spss.com" name="format" value="5"/>
			  <Extension extender="spss.com" name="width" value="8"/>
			  <Extension extender="spss.com" name="decimals" value="0"/>
			  <Value displayValue="1" property="valid" value="1"/>
			  <Value displayValue="2" property="valid" value="2"/>
			  <Value displayValue="3" property="valid" value="3"/>
			  <Value displayValue="4" property="valid" value="4"/>
		</DataField>
		  <DataField dataType="double" displayName="ACADEMIC_STANDING" name="ACADEMIC_STANDING" optype="categorical">
			  <Extension extender="spss.com" name="format" value="5"/>
			  <Extension extender="spss.com" name="width" value="10"/>
			  <Extension extender="spss.com" name="decimals" value="3"/>
			  <Value displayValue="0.0" property="valid" value="0"/>
			  <Value displayValue="1.0" property="valid" value="1"/>
			  <Value displayValue="2.0" property="valid" value="2"/>
		</DataField>
		  <DataField dataType="double" displayName="ENROLLMENT" name="ENROLLMENT" optype="continuous">
			  <Extension extender="spss.com" name="format" value="5"/>
			  <Extension extender="spss.com" name="width" value="10"/>
			  <Extension extender="spss.com" name="decimals" value="3"/>
		</DataField>
		  <DataField dataType="double" displayName="SAT_VERBAL_SCORE" name="SAT_VERBAL_SCORE" optype="continuous">
			  <Extension extender="spss.com" name="format" value="5"/>
			  <Extension extender="spss.com" name="width" value="10"/>
			  <Extension extender="spss.com" name="decimals" value="3"/>
		</DataField>
		  <DataField dataType="double" displayName="SAT_MATH_SCORE" name="SAT_MATH_SCORE" optype="continuous">
			  <Extension extender="spss.com" name="format" value="5"/>
			  <Extension extender="spss.com" name="width" value="10"/>
			  <Extension extender="spss.com" name="decimals" value="3"/>
		</DataField>
		  <DataField dataType="double" displayName="APTITUDE_SCORE" name="APTITUDE_SCORE" optype="continuous">
			  <Extension extender="spss.com" name="format" value="5"/>
			  <Extension extender="spss.com" name="width" value="10"/>
			  <Extension extender="spss.com" name="decimals" value="3"/>
		</DataField>
		  <DataField dataType="double" displayName="AGE" name="AGE" optype="continuous">
			  <Extension extender="spss.com" name="format" value="5"/>
			  <Extension extender="spss.com" name="width" value="10"/>
			  <Extension extender="spss.com" name="decimals" value="3"/>
		</DataField>
		  <DataField dataType="double" displayName="CUM_GPA" name="CUM_GPA" optype="continuous">
			  <Extension extender="spss.com" name="format" value="5"/>
			  <Extension extender="spss.com" name="width" value="10"/>
			  <Extension extender="spss.com" name="decimals" value="3"/>
		</DataField>
		  <DataField dataType="double" displayName="RMN_SCORE_PARTIAL" name="RMN_SCORE_PARTIAL" optype="continuous">
			  <Extension extender="spss.com" name="format" value="5"/>
			  <Extension extender="spss.com" name="width" value="10"/>
			  <Extension extender="spss.com" name="decimals" value="3"/>
		</DataField>
		  <DataField dataType="double" displayName="R_CONTENT_READ" name="R_CONTENT_READ" optype="continuous">
			  <Extension extender="spss.com" name="format" value="5"/>
			  <Extension extender="spss.com" name="width" value="10"/>
			  <Extension extender="spss.com" name="decimals" value="3"/>
		</DataField>
		  <DataField dataType="double" displayName="R_SESSIONS" name="R_SESSIONS" optype="continuous">
			  <Extension extender="spss.com" name="format" value="5"/>
			  <Extension extender="spss.com" name="width" value="10"/>
			  <Extension extender="spss.com" name="decimals" value="3"/>
		</DataField>
	</DataDictionary>
	<GeneralRegressionModel functionName="classification" modelName="multinomialLogistic" modelType="multinomialLogistic" targetVariableName="ACADEMIC_RISK">
		  <Extension extender="spss.com" name="numberParameters" value="21"/>
		  <MiningSchema>
			  <MiningField missingValueTreatment="asIs" name="ACADEMIC_RISK" usageType="predicted"/>
			  <MiningField importance="0.00621066" missingValueTreatment="asIs" name="RC_GENDER" usageType="active"/>
			  <MiningField importance="0.00221888" missingValueTreatment="asIs" name="RC_FTPT" usageType="active"/>
			  <MiningField importance="0" missingValueTreatment="asIs" name="RC_CLASS" usageType="active"/>
			  <MiningField importance="0.236203" missingValueTreatment="asIs" name="ACADEMIC_STANDING" usageType="active"/>
			  <MiningField importance="0.00420522" missingValueTreatment="asIs" name="ENROLLMENT" usageType="active"/>
			  <MiningField importance="0" missingValueTreatment="asIs" name="SAT_VERBAL_SCORE" usageType="active"/>
			  <MiningField importance="0" missingValueTreatment="asIs" name="SAT_MATH_SCORE" usageType="active"/>
			  <MiningField importance="0.0127897" missingValueTreatment="asIs" name="APTITUDE_SCORE" usageType="active"/>
			  <MiningField importance="0.00380369" missingValueTreatment="asIs" name="AGE" usageType="active"/>
			  <MiningField importance="0.392901" missingValueTreatment="asIs" name="CUM_GPA" usageType="active"/>
			  <MiningField importance="0.311152" missingValueTreatment="asIs" name="RMN_SCORE_PARTIAL" usageType="active"/>
			  <MiningField importance="0.0120979" missingValueTreatment="asIs" name="R_CONTENT_READ" usageType="active"/>
			  <MiningField importance="0.018418" missingValueTreatment="asIs" name="R_SESSIONS" usageType="active"/>
		</MiningSchema>
		  <ParameterList>
			  <Parameter label="Intercept" name="P0000001"/>
			  <Parameter label="ENROLLMENT" name="P0000002"/>
			  <Parameter label="SAT_VERBAL_SCORE" name="P0000003"/>
			  <Parameter label="SAT_MATH_SCORE" name="P0000004"/>
			  <Parameter label="APTITUDE_SCORE" name="P0000005"/>
			  <Parameter label="AGE" name="P0000006"/>
			  <Parameter label="CUM_GPA" name="P0000007"/>
			  <Parameter label="RMN_SCORE_PARTIAL" name="P0000008"/>
			  <Parameter label="R_CONTENT_READ" name="P0000009"/>
			  <Parameter label="R_SESSIONS" name="P0000010"/>
			  <Parameter label="[RC_GENDER=1]" name="P0000011"/>
			  <Parameter label="[RC_GENDER=2]" name="P0000012"/>
			  <Parameter label="[RC_FTPT=1]" name="P0000013"/>
			  <Parameter label="[RC_FTPT=2]" name="P0000014"/>
			  <Parameter label="[RC_CLASS=1]" name="P0000015"/>
			  <Parameter label="[RC_CLASS=2]" name="P0000016"/>
			  <Parameter label="[RC_CLASS=3]" name="P0000017"/>
			  <Parameter label="[RC_CLASS=4]" name="P0000018"/>
			  <Parameter label="[ACADEMIC_STANDING=.000]" name="P0000019"/>
			  <Parameter label="[ACADEMIC_STANDING=1.000]" name="P0000020"/>
			  <Parameter label="[ACADEMIC_STANDING=2.000]" name="P0000021"/>
		</ParameterList>
		  <FactorList>
			  <Predictor name="RC_GENDER"/>
			  <Predictor name="RC_FTPT"/>
			  <Predictor name="RC_CLASS"/>
			  <Predictor name="ACADEMIC_STANDING"/>
		</FactorList>
		  <CovariateList>
			  <Predictor name="ENROLLMENT"/>
			  <Predictor name="SAT_VERBAL_SCORE"/>
			  <Predictor name="SAT_MATH_SCORE"/>
			  <Predictor name="APTITUDE_SCORE"/>
			  <Predictor name="AGE"/>
			  <Predictor name="CUM_GPA"/>
			  <Predictor name="RMN_SCORE_PARTIAL"/>
			  <Predictor name="R_CONTENT_READ"/>
			  <Predictor name="R_SESSIONS"/>
		</CovariateList>
		  <PPMatrix>
			  <PPCell parameterName="P0000002" predictorName="ENROLLMENT" value="1"/>
			  <PPCell parameterName="P0000003" predictorName="SAT_VERBAL_SCORE" value="1"/>
			  <PPCell parameterName="P0000004" predictorName="SAT_MATH_SCORE" value="1"/>
			  <PPCell parameterName="P0000005" predictorName="APTITUDE_SCORE" value="1"/>
			  <PPCell parameterName="P0000006" predictorName="AGE" value="1"/>
			  <PPCell parameterName="P0000007" predictorName="CUM_GPA" value="1"/>
			  <PPCell parameterName="P0000008" predictorName="RMN_SCORE_PARTIAL" value="1"/>
			  <PPCell parameterName="P0000009" predictorName="R_CONTENT_READ" value="1"/>
			  <PPCell parameterName="P0000010" predictorName="R_SESSIONS" value="1"/>
			  <PPCell parameterName="P0000011" predictorName="RC_GENDER" value="1"/>
			  <PPCell parameterName="P0000012" predictorName="RC_GENDER" value="2"/>
			  <PPCell parameterName="P0000013" predictorName="RC_FTPT" value="1"/>
			  <PPCell parameterName="P0000014" predictorName="RC_FTPT" value="2"/>
			  <PPCell parameterName="P0000015" predictorName="RC_CLASS" value="1"/>
			  <PPCell parameterName="P0000016" predictorName="RC_CLASS" value="2"/>
			  <PPCell parameterName="P0000017" predictorName="RC_CLASS" value="3"/>
			  <PPCell parameterName="P0000018" predictorName="RC_CLASS" value="4"/>
			  <PPCell parameterName="P0000019" predictorName="ACADEMIC_STANDING" value="0"/>
			  <PPCell parameterName="P0000020" predictorName="ACADEMIC_STANDING" value="1"/>
			  <PPCell parameterName="P0000021" predictorName="ACADEMIC_STANDING" value="2"/>
		</PPMatrix>
		  <ParamMatrix>
			  <PCell beta="-9.42926984895178" df="1" parameterName="P0000001" targetCategory="2"/>
			  <PCell beta="-0.00863303445038928" df="1" parameterName="P0000002" targetCategory="2"/>
			  <PCell beta="-0.00115607816849253" df="1" parameterName="P0000003" targetCategory="2"/>
			  <PCell beta="-0.00194190450280088" df="1" parameterName="P0000004" targetCategory="2"/>
			  <PCell beta="0.000761284194670929" df="1" parameterName="P0000005" targetCategory="2"/>
			  <PCell beta="-0.00208725406697372" df="1" parameterName="P0000006" targetCategory="2"/>
			  <PCell beta="2.20880976399796" df="1" parameterName="P0000007" targetCategory="2"/>
			  <PCell beta="0.0668213870995776" df="1" parameterName="P0000008" targetCategory="2"/>
			  <PCell beta="0.231991569173603" df="1" parameterName="P0000009" targetCategory="2"/>
			  <PCell beta="0.142312827783007" df="1" parameterName="P0000010" targetCategory="2"/>
			  <PCell beta="0.0568012330495269" df="1" parameterName="P0000011" targetCategory="2"/>
			  <PCell beta="0" df="0" parameterName="P0000012" targetCategory="2"/>
			  <PCell beta="-0.547172211470418" df="1" parameterName="P0000013" targetCategory="2"/>
			  <PCell beta="0" df="0" parameterName="P0000014" targetCategory="2"/>
			  <PCell beta="0.382751750541925" df="1" parameterName="P0000015" targetCategory="2"/>
			  <PCell beta="-0.245117744810409" df="1" parameterName="P0000016" targetCategory="2"/>
			  <PCell beta="-0.149647672058883" df="1" parameterName="P0000017" targetCategory="2"/>
			  <PCell beta="0" df="0" parameterName="P0000018" targetCategory="2"/>
			  <PCell beta="-3.24685766706577" df="1" parameterName="P0000019" targetCategory="2"/>
			  <PCell beta="-1.99708789997953" df="1" parameterName="P0000020" targetCategory="2"/>
			  <PCell beta="0" df="0" parameterName="P0000021" targetCategory="2"/>
		</ParamMatrix>
	</GeneralRegressionModel>
</PMML>